{
  "schemaVersion": 1,
  "modelType": "mlp_binary_classifier",
  "location": {
    "name": "Paris",
    "latitude": 48.8566,
    "longitude": 2.3522,
    "timezone": "Europe/Paris"
  },
  "training": {
    "dataStart": "2015-01-01",
    "trainEnd": "2022-12-31",
    "validationEnd": "2024-12-31",
    "testEnd": "2025-12-31",
    "trainedAt": "2026-06-20T02:33:57.459482+00:00",
    "config": {
      "name": "mlp_8",
      "hidden_layer_sizes": [
        8
      ],
      "alpha": 0.001,
      "learning_rate_init": 0.001
    },
    "seed": 17
  },
  "task": {
    "windowDays": 7,
    "rainThresholdMm": 1.0,
    "target": "precipitation_sum_next_day_gte_threshold"
  },
  "dailyFeatures": [
    "temperature_2m_mean",
    "temperature_2m_min",
    "temperature_2m_max",
    "precipitation_sum",
    "precipitation_hours",
    "wind_speed_10m_max",
    "sunshine_duration"
  ],
  "featureNames": [
    "temperature_2m_mean_lag_7",
    "temperature_2m_min_lag_7",
    "temperature_2m_max_lag_7",
    "precipitation_sum_lag_7",
    "precipitation_hours_lag_7",
    "wind_speed_10m_max_lag_7",
    "sunshine_duration_lag_7",
    "temperature_2m_mean_lag_6",
    "temperature_2m_min_lag_6",
    "temperature_2m_max_lag_6",
    "precipitation_sum_lag_6",
    "precipitation_hours_lag_6",
    "wind_speed_10m_max_lag_6",
    "sunshine_duration_lag_6",
    "temperature_2m_mean_lag_5",
    "temperature_2m_min_lag_5",
    "temperature_2m_max_lag_5",
    "precipitation_sum_lag_5",
    "precipitation_hours_lag_5",
    "wind_speed_10m_max_lag_5",
    "sunshine_duration_lag_5",
    "temperature_2m_mean_lag_4",
    "temperature_2m_min_lag_4",
    "temperature_2m_max_lag_4",
    "precipitation_sum_lag_4",
    "precipitation_hours_lag_4",
    "wind_speed_10m_max_lag_4",
    "sunshine_duration_lag_4",
    "temperature_2m_mean_lag_3",
    "temperature_2m_min_lag_3",
    "temperature_2m_max_lag_3",
    "precipitation_sum_lag_3",
    "precipitation_hours_lag_3",
    "wind_speed_10m_max_lag_3",
    "sunshine_duration_lag_3",
    "temperature_2m_mean_lag_2",
    "temperature_2m_min_lag_2",
    "temperature_2m_max_lag_2",
    "precipitation_sum_lag_2",
    "precipitation_hours_lag_2",
    "wind_speed_10m_max_lag_2",
    "sunshine_duration_lag_2",
    "temperature_2m_mean_lag_1",
    "temperature_2m_min_lag_1",
    "temperature_2m_max_lag_1",
    "precipitation_sum_lag_1",
    "precipitation_hours_lag_1",
    "wind_speed_10m_max_lag_1",
    "sunshine_duration_lag_1",
    "target_day_sin",
    "target_day_cos"
  ],
  "preprocessing": {
    "mean": [
      12.269982847341337,
      8.176363636363636,
      16.438627787307034,
      1.9092281303602057,
      3.7660377358490567,
      18.838765008576328,
      8.019117303220888,
      12.273996569468267,
      8.180651801029159,
      16.442607204116637,
      1.911114922813036,
      3.7684391080617496,
      18.840274442538597,
      8.017694230036211,
      12.275540308747855,
      8.182229845626072,
      16.44336192109777,
      1.9113550600343054,
      3.769468267581475,
      18.839725557461406,
      8.018662125023825,
      12.275437392795883,
      8.18384219554031,
      16.44216123499142,
      1.9100857632933104,
      3.7663807890222984,
      18.835265866209262,
      8.021191680007624,
      12.277358490566037,
      8.185934819897085,
      16.442435677530018,
      1.910600343053173,
      3.7687821612349914,
      18.84106346483705,
      8.021877786354107,
      12.28058319039451,
      8.189193825042882,
      16.44490566037736,
      1.9109777015437392,
      3.770154373927959,
      18.848953687821613,
      8.021507189822756,
      12.283636363636365,
      8.19204116638079,
      16.447924528301886,
      1.9138593481989707,
      3.7735849056603774,
      18.85722126929674,
      8.01956660282066,
      -0.00016058388250618996,
      -0.002394322599402152
    ],
    "scale": [
      6.580350798991242,
      5.943214458322552,
      7.464910034421486,
      3.6536004828477466,
      4.895562373792654,
      7.177203752601502,
      4.67400894571047,
      6.576066301889702,
      5.939585167280201,
      7.460035735047211,
      3.6540341613504252,
      4.895431286194615,
      7.177258533862533,
      4.675818420965993,
      6.574886625792776,
      5.938048940221672,
      7.45949517633886,
      3.6540038496062803,
      4.895795188060424,
      7.177009219110652,
      4.674890471740994,
      6.574988767733603,
      5.936003153343525,
      7.4604758074920925,
      3.654024942084932,
      4.895333491069884,
      7.172930213327544,
      4.672545268991583,
      6.573505364894038,
      5.934933165022296,
      7.460275603338429,
      3.6540164442365572,
      4.896673676755334,
      7.177706927850486,
      4.671514128383928,
      6.5700317860860125,
      5.931561933071455,
      7.4574795094807165,
      3.6538759097933666,
      4.89617778711062,
      7.178536817728335,
      4.671558699334454,
      6.56676306648646,
      5.927941087936402,
      7.454869474565718,
      3.6556795766561723,
      4.897038207257516,
      7.185670309846658,
      4.673715036939409,
      0.7079453341448935,
      0.7062631558382342
    ]
  },
  "layers": [
    {
      "weights": [
        [
          -0.11684251865809228,
          0.055243459146711936,
          -0.08435758445262538,
          -0.3276855039033682,
          0.2002906244174497,
          0.02589181832873107,
          0.20392599431913785,
          -0.06453967022013846
        ],
        [
          -0.27499733355435874,
          0.012693237195756883,
          0.4443041323054741,
          -0.25913842443526164,
          0.2121988960943387,
          0.12543162632091262,
          -0.14590875981635593,
          -0.1315099330975898
        ],
        [
          0.012432151818122085,
          0.07610083693164872,
          0.08811986412944287,
          -0.20431689751497079,
          -0.1408601815980394,
          -0.03140844769857786,
          0.03494156068324335,
          0.1367036522212752
        ],
        [
          -0.006991078916792475,
          -0.10803272341307714,
          -0.09345348006035854,
          -0.019497352583157906,
          0.1260682024049714,
          -0.021292114627627576,
          -0.31170346284225675,
          -0.2215915551167193
        ],
        [
          -0.017565191145366463,
          -0.22132303320364777,
          -0.03298844551728304,
          -0.1843559497843985,
          -0.04619270760207541,
          -0.16847327781922175,
          0.18594569389220766,
          0.153313001195585
        ],
        [
          0.05180741513557459,
          -0.3805734096644244,
          0.348700510247677,
          0.45498553486801824,
          0.12938668063545403,
          0.1265957862181533,
          -0.045228735155691,
          0.017416419177516795
        ],
        [
          -0.07940725271243358,
          0.18888658556693635,
          0.06409176156072964,
          -0.19692659136425306,
          -0.43961413952973183,
          0.0864543528526319,
          -0.2549103329424043,
          0.3304070514385098
        ],
        [
          -0.21537292336464198,
          0.36268060942883457,
          -0.2482472223375417,
          -0.04577971423064559,
          0.12154972669264946,
          0.22794101568828753,
          -0.2069876638958129,
          -0.3811992184093836
        ],
        [
          0.14517071801161868,
          -0.22871446425318512,
          0.1464485734653885,
          0.23562860115112233,
          0.27161143146776207,
          0.20374166834533775,
          -0.24140242372078505,
          -0.24425177127948056
        ],
        [
          -0.06276918680198841,
          0.15295831445864502,
          -0.26313073628173833,
          0.0034193123169507372,
          0.23259129273346513,
          0.14146017435482744,
          0.17666230064396993,
          -0.1509473098282996
        ],
        [
          -0.05535569888258217,
          -0.29918964397400266,
          0.1216587704644448,
          -0.46068475477466553,
          -0.08451917478948849,
          -0.011644132923321445,
          0.24533584154350124,
          -0.5169856252444422
        ],
        [
          -0.05288360884510672,
          0.2851422239989091,
          -0.26233981435215764,
          0.1687276917549197,
          0.05149256754252782,
          0.2082783839217717,
          -0.11733935402486602,
          -0.09833040347704158
        ],
        [
          0.2393816209270827,
          0.1018285090856092,
          0.014817756576450042,
          0.3411224418627859,
          0.24740737008687613,
          -0.02031049381132463,
          -0.20053858259049243,
          0.4221668841778869
        ],
        [
          0.1837502834280763,
          -0.05563900787429817,
          -0.1638625547537737,
          -0.023696876627374214,
          -0.011921828867026725,
          0.27943508285527313,
          0.20180575021595654,
          -0.005732351767911221
        ],
        [
          0.00992443207593334,
          0.12048788411325946,
          0.21305276710840687,
          -0.2765892196958589,
          0.09395727067039521,
          -0.11525436117868766,
          -0.1543769778555223,
          0.230307260969124
        ],
        [
          0.10995940542197408,
          0.00765626878406538,
          0.1296809010399018,
          -0.03290222576123266,
          -0.2776545270699117,
          0.2921911559391465,
          -0.22547150073768105,
          0.014348406030853392
        ],
        [
          0.20698772041029082,
          -0.0592550741478947,
          0.1656086647838091,
          -0.1876895809758901,
          0.16980278711499236,
          0.1995234743773284,
          -0.10144191406387885,
          0.2931287961853788
        ],
        [
          0.06999960418346003,
          0.0614849738123672,
          -0.07969607274428467,
          0.03162749388911946,
          -0.08313701046900943,
          0.019741042087611346,
          -0.003173848947846537,
          -0.13714784429279217
        ],
        [
          -0.10483340445591303,
          -0.02012814842732793,
          0.27343211369407583,
          0.13673317570762333,
          -0.4218098831793832,
          0.16086716952811908,
          -0.2924079434779552,
          -0.31373693689991566
        ],
        [
          0.08800026840451619,
          0.11711286499904434,
          -0.009189281197073376,
          -0.3457778936444909,
          0.006113422843360754,
          0.15197724975541096,
          -0.3445789571621888,
          0.10515694866740914
        ],
        [
          -0.01810292068109008,
          0.24727064755599384,
          0.05387795651870358,
          0.2401969669318431,
          0.04826129913107128,
          0.1235512961203666,
          0.09753219726510759,
          0.37346859387161707
        ],
        [
          0.14105595347021554,
          -0.3396687476780329,
          -0.14771366226220933,
          -0.3367094353052121,
          -0.08999388009888581,
          -0.11107866049428006,
          0.007396634708623921,
          0.26141754401170014
        ],
        [
          -0.03895262069219955,
          -0.09746338332969487,
          0.04600654550027685,
          -0.3008328690549628,
          -0.07951553060928765,
          0.14975518234282625,
          -0.10771192233888241,
          -0.23008203029943536
        ],
        [
          0.19896648467090583,
          -0.2912724122753608,
          0.16180391359596832,
          -0.2238915208326792,
          0.017088771864454337,
          -0.32595387577245805,
          0.2762048957182585,
          0.005989415176975611
        ],
        [
          -0.41509172625544855,
          0.3377938831465167,
          -0.23773762427250653,
          0.5591873817006886,
          0.1377541970502582,
          0.3013148663062665,
          0.2902466939354755,
          -0.028422667381884946
        ],
        [
          -0.00903312263214847,
          0.18455799999894393,
          0.11560339740928229,
          0.05770141840871375,
          0.15215376824038238,
          0.2807742149381992,
          0.34642860456723734,
          0.3585626043684057
        ],
        [
          -0.11286194847687595,
          0.19990303093759162,
          0.004899655864414876,
          0.21348256565284204,
          0.10698155753422864,
          0.12362864611670825,
          -0.10217734339393879,
          -0.07667647234863798
        ],
        [
          -0.11447762307197007,
          -0.206448364900816,
          0.30440210399950324,
          -0.16647873614051922,
          -0.22951691854141068,
          0.07280075479598756,
          -0.01195451052383174,
          -0.4616696347854363
        ],
        [
          0.10835337477165595,
          0.16354182661855687,
          -0.2468670091671448,
          0.042380691822529924,
          -0.15205300925899565,
          0.2456906499334102,
          -0.03518936194595129,
          -0.02329309984920174
        ],
        [
          -0.038787851171086206,
          -0.17163523417072016,
          0.20715740938749502,
          -0.21613834127887885,
          0.02147590706941151,
          0.15256742379732166,
          0.15062162753405034,
          0.08874109894589967
        ],
        [
          0.1567248789044897,
          0.18971495812281453,
          0.20174009662407236,
          -0.14076634698621335,
          -0.08321350792535806,
          -0.029612132374086046,
          0.3673988370716045,
          0.2118009462849087
        ],
        [
          -0.21544220345691698,
          0.05089553734396873,
          0.07541995335096446,
          -0.24093456666836516,
          0.049618090841383466,
          0.27353387507982385,
          -0.14947340394280903,
          -0.2244295121511874
        ],
        [
          0.11605715941142832,
          0.10314741225372484,
          0.22397100503025885,
          0.21024023142328072,
          0.01814850286900998,
          0.38392035417102266,
          -0.10969719336866138,
          -0.0492710636381772
        ],
        [
          -0.15278934061885424,
          -0.06089187353726899,
          0.12014356802869046,
          -0.06163127947117729,
          -0.07647042974396669,
          0.1268266553888981,
          -0.04745415415414523,
          -0.5184069074487094
        ],
        [
          0.28743399048580576,
          0.002613546339585451,
          -0.02322381421350193,
          0.2276652435878213,
          0.28020574509603297,
          0.23719015077353886,
          -0.1817295503728319,
          -0.1738311991581793
        ],
        [
          -0.38693614521844427,
          0.08596697942248205,
          0.26457406634150177,
          0.03518174240918156,
          0.172872430956613,
          -0.19934471166499118,
          0.1542034069856724,
          -0.02691575790165354
        ],
        [
          -0.21453755762337884,
          0.19458682417861922,
          0.08709653154323674,
          -0.17058946436121433,
          -0.24997431018917024,
          -0.24140123533606148,
          0.14074238699647487,
          0.07714444046909831
        ],
        [
          -0.3581665570466311,
          0.17026072313455196,
          -0.141022998684275,
          -0.022756048150133247,
          0.18186568138516898,
          0.3388629307874106,
          0.09011319039683581,
          0.2598178262681228
        ],
        [
          0.014911370656409234,
          -0.27732316418374203,
          0.2767350038512429,
          -0.036367607505676254,
          0.37830921330375317,
          0.04049455296903472,
          -0.2918227547165985,
          -0.14530968402611796
        ],
        [
          -0.28936277306508024,
          -0.46776830262033453,
          -0.3470717210705675,
          0.2100738846383832,
          0.33669485564859275,
          -0.04811354557172178,
          -0.03524638326452898,
          0.09573240490869221
        ],
        [
          -0.17424881369815967,
          0.11523260296850667,
          -0.22475871907535033,
          -0.00962310522796761,
          0.12017046531325858,
          0.053121587372421133,
          0.2285986871053977,
          -0.44102739830534693
        ],
        [
          -0.2695714867996319,
          -0.04880359545585281,
          0.05333319303198677,
          -0.00039368311098779,
          0.0645352866574587,
          0.028701068068026747,
          -0.1942861419593219,
          0.027560384944423356
        ],
        [
          0.12453403496383472,
          0.00403584054039033,
          -0.2891689467676883,
          -0.18275543833647373,
          -0.09398530510630618,
          0.042150863564508,
          -0.06859417108522248,
          0.15139349677804106
        ],
        [
          -0.0823438241858471,
          0.13409360220238967,
          0.13421605442647458,
          -0.05183274505868865,
          -0.07936682799435293,
          0.17407335253226588,
          0.07757295623050436,
          0.14881402090802356
        ],
        [
          -0.09724940437281814,
          -0.11161347255873535,
          -0.3251035006869654,
          0.4459615554666806,
          -0.18038506557782227,
          -0.014671548542786952,
          -0.673749576666979,
          0.31254915937309746
        ],
        [
          -0.5936646363696441,
          -0.013471771071282165,
          0.20382000439041484,
          -0.02091627317642261,
          -0.3143847019944988,
          -0.09767161164647081,
          -0.5309908633820831,
          0.2749726139644987
        ],
        [
          -0.4241124250820023,
          -0.22806256869153005,
          -0.24614129059067308,
          0.027579726492408755,
          -0.06267838815565491,
          0.10993547752691522,
          -0.2338641599554933,
          0.45173248891720336
        ],
        [
          -0.42162529174537927,
          0.15257911476772862,
          0.2741933383217305,
          0.5006884070739601,
          -0.3865894522741743,
          0.012601136214502389,
          -0.18043385051133662,
          0.1807479942072971
        ],
        [
          0.1976334166306255,
          0.10817731717584199,
          0.23388284427921302,
          0.1976340638009092,
          -0.2812559691392426,
          -0.14018801962449884,
          0.24218544598943084,
          -0.022058937698638155
        ],
        [
          -0.060872704531477556,
          -0.11795166115653145,
          -0.05478792674247741,
          -0.697321235411753,
          0.12799020666008395,
          0.31497860473023237,
          -0.030130902436203505,
          -0.1075588967565239
        ],
        [
          -0.06099701848200293,
          -0.1906112729030858,
          -0.35544521987025,
          0.08079630319053488,
          -0.09846506056068267,
          -0.19340849382516814,
          -0.25708496831376454,
          -0.2846406171171724
        ]
      ],
      "biases": [
        0.31027066694823413,
        -0.1626772458737382,
        0.19684758427830948,
        0.37436847385061084,
        -0.19528487315291723,
        0.5535350201524418,
        -0.24898880264407788,
        0.3567451516323419
      ],
      "activation": "relu"
    },
    {
      "weights": [
        [
          -0.721031030898272
        ],
        [
          -0.8579929408760674
        ],
        [
          -0.7289858961580267
        ],
        [
          0.2737764055769124
        ],
        [
          -0.433580931845057
        ],
        [
          0.4384333385429399
        ],
        [
          -0.4870822851260038
        ],
        [
          0.331964511128813
        ]
      ],
      "biases": [
        -0.05072898464649824
      ],
      "activation": "sigmoid"
    }
  ],
  "calibration": {
    "method": "platt_on_validation_period",
    "coefficient": 0.7359446450579696,
    "intercept": 0.16000412433515454
  },
  "metrics": {
    "validation_uncalibrated": {
      "n_samples": 731,
      "positive_rate": 0.44596443228454175,
      "accuracy": 0.66484268125855,
      "balanced_accuracy": 0.6490646065288193,
      "precision": 0.6639676113360324,
      "recall": 0.5030674846625767,
      "f1": 0.5724258289703316,
      "roc_auc": 0.7164735287434674,
      "average_precision": 0.6708257821902202,
      "brier_score": 0.2158018724772913,
      "log_loss": 0.62897028489714,
      "confusion_matrix": [
        [
          322,
          83
        ],
        [
          162,
          164
        ]
      ]
    },
    "test_uncalibrated": {
      "n_samples": 365,
      "positive_rate": 0.32602739726027397,
      "accuracy": 0.7095890410958904,
      "balanced_accuracy": 0.6348807815809251,
      "precision": 0.5747126436781609,
      "recall": 0.42016806722689076,
      "f1": 0.4854368932038835,
      "roc_auc": 0.70523331283733,
      "average_precision": 0.5419881520721291,
      "brier_score": 0.1970201582178233,
      "log_loss": 0.5831405668802216,
      "confusion_matrix": [
        [
          209,
          37
        ],
        [
          69,
          50
        ]
      ]
    },
    "test_calibrated": {
      "n_samples": 365,
      "positive_rate": 0.32602739726027397,
      "accuracy": 0.7041095890410959,
      "balanced_accuracy": 0.6394923823187811,
      "precision": 0.5567010309278351,
      "recall": 0.453781512605042,
      "f1": 0.5,
      "roc_auc": 0.70523331283733,
      "average_precision": 0.5419881520721291,
      "brier_score": 0.19756863502331465,
      "log_loss": 0.5811717941924429,
      "confusion_matrix": [
        [
          203,
          43
        ],
        [
          65,
          54
        ]
      ]
    }
  },
  "verification": {
    "features": [
      [
        8.0,
        5.8,
        9.8,
        2.1,
        11.0,
        11.4,
        0.0301555555555555,
        9.6,
        7.7,
        11.2,
        11.6,
        12.0,
        21.4,
        0.0,
        9.2,
        6.9,
        10.8,
        0.1,
        1.0,
        14.9,
        1.0131222222222225,
        5.1,
        3.4,
        8.1,
        0.0,
        0.0,
        13.1,
        0.5481611111111111,
        3.4,
        -0.4,
        5.2,
        0.0,
        0.0,
        21.1,
        7.809738888888889,
        -0.0,
        -1.1,
        1.6,
        0.1,
        1.0,
        20.5,
        7.874025,
        -0.6,
        -2.5,
        2.8,
        0.0,
        0.0,
        9.4,
        7.886069444444444,
        -0.07304518821104743,
        0.9973286321364752
      ],
      [
        9.6,
        7.7,
        11.2,
        11.6,
        12.0,
        21.4,
        0.0,
        9.2,
        6.9,
        10.8,
        0.1,
        1.0,
        14.9,
        1.0131222222222225,
        5.1,
        3.4,
        8.1,
        0.0,
        0.0,
        13.1,
        0.5481611111111111,
        3.4,
        -0.4,
        5.2,
        0.0,
        0.0,
        21.1,
        7.809738888888889,
        -0.0,
        -1.1,
        1.6,
        0.1,
        1.0,
        20.5,
        7.874025,
        -0.6,
        -2.5,
        2.8,
        0.0,
        0.0,
        9.4,
        7.886069444444444,
        0.1,
        -1.2,
        3.3,
        0.0,
        0.0,
        10.0,
        7.8987944444444445,
        -0.05587875690537313,
        0.9984375616565666
      ],
      [
        9.2,
        6.9,
        10.8,
        0.1,
        1.0,
        14.9,
        1.0131222222222225,
        5.1,
        3.4,
        8.1,
        0.0,
        0.0,
        13.1,
        0.5481611111111111,
        3.4,
        -0.4,
        5.2,
        0.0,
        0.0,
        21.1,
        7.809738888888889,
        -0.0,
        -1.1,
        1.6,
        0.1,
        1.0,
        20.5,
        7.874025,
        -0.6,
        -2.5,
        2.8,
        0.0,
        0.0,
        9.4,
        7.886069444444444,
        0.1,
        -1.2,
        3.3,
        0.0,
        0.0,
        10.0,
        7.8987944444444445,
        0.4,
        -1.5,
        2.7,
        0.0,
        0.0,
        12.8,
        2.9853388888888888,
        -0.03869579017652689,
        0.9992510374388481
      ],
      [
        5.1,
        3.4,
        8.1,
        0.0,
        0.0,
        13.1,
        0.5481611111111111,
        3.4,
        -0.4,
        5.2,
        0.0,
        0.0,
        21.1,
        7.809738888888889,
        -0.0,
        -1.1,
        1.6,
        0.1,
        1.0,
        20.5,
        7.874025,
        -0.6,
        -2.5,
        2.8,
        0.0,
        0.0,
        9.4,
        7.886069444444444,
        0.1,
        -1.2,
        3.3,
        0.0,
        0.0,
        10.0,
        7.8987944444444445,
        0.4,
        -1.5,
        2.7,
        0.0,
        0.0,
        12.8,
        2.9853388888888888,
        -0.6,
        -4.1,
        2.8,
        0.0,
        0.0,
        11.4,
        7.926155555555556,
        -0.021501372740813793,
        0.999768818762748
      ],
      [
        3.4,
        -0.4,
        5.2,
        0.0,
        0.0,
        21.1,
        7.809738888888889,
        -0.0,
        -1.1,
        1.6,
        0.1,
        1.0,
        20.5,
        7.874025,
        -0.6,
        -2.5,
        2.8,
        0.0,
        0.0,
        9.4,
        7.886069444444444,
        0.1,
        -1.2,
        3.3,
        0.0,
        0.0,
        10.0,
        7.8987944444444445,
        0.4,
        -1.5,
        2.7,
        0.0,
        0.0,
        12.8,
        2.9853388888888888,
        -0.6,
        -4.1,
        2.8,
        0.0,
        0.0,
        11.4,
        7.926155555555556,
        2.4,
        0.4,
        5.1,
        0.0,
        0.0,
        11.9,
        7.919011111111111,
        -0.004300592702981974,
        0.9999907524084426
      ]
    ],
    "calibratedProbabilities": [
      0.1135999942466134,
      0.20693672550072217,
      0.2882285925826291,
      0.16451194018207482,
      0.24325928113226428
    ]
  },
  "disclaimer": "Educational model; not an official weather forecast."
}